{"learner":{"attributes":{"scikit_learn":"{\"_estimator_type\": \"classifier\"}"},"feature_names":["Duration_Months","Credit_Amount","Installment_Rate","Age_Years","Number_Credits","Checking_Account_Status_greater_equal 200 DM","Checking_Account_Status_no checking account","Checking_Account_Status_smaller 0 DM","Checking_Account_Status_smaller 200 DM","Credit_History_all credits at this bank paid back duly","Credit_History_critical account/other credits existing (not at this bank)","Credit_History_delay in paying off in the past","Credit_History_existing credits paid back duly till now","Credit_History_no credits taken/ all credits paid back duly","Purpose_business","Purpose_car (new)","Purpose_car (used)","Purpose_domestic appliances","Purpose_education","Purpose_furniture/equipment","Purpose_others","Purpose_radio/television","Purpose_repairs","Purpose_retraining","Savings_Account_greater_equal 1000 DM","Savings_Account_smaller 100 DM","Savings_Account_smaller 1000 DM","Savings_Account_smaller 500 DM","Savings_Account_unknown/no savings account","Employment_Since_greater_equal 7 years","Employment_Since_smaller 1 year","Employment_Since_smaller 4 years","Employment_Since_smaller 7 years","Employment_Since_unemployed","Property_if not A121 : building society savings agreement/ life insurance","Property_if not A121/A122 : car or other, not in attribute 6","Property_real estate","Property_unknown/no property","Other_Installment_Plans_bank","Other_Installment_Plans_none","Other_Installment_Plans_stores","Housing_for free","Housing_own","Housing_rent","Foreign_Worker_no","Foreign_Worker_yes","Sex_female","Sex_male","Relationship_Status_divorced/separated","Relationship_Status_divorced/separated/married","Relationship_Status_married/widowed","Relationship_Status_single"],"feature_types":["int","int","int","int","int","i","i","i","i","i","i","i","i","i","i","i","i","i","i","i","i","i","i","i","i","i","i","i","i","i","i","i","i","i","i","i","i","i","i","i","i","i","i","i","i","i","i","i","i","i","i","i"],"gradient_booster":{"model":{"gbtree_model_param":{"num_parallel_tree":"1","num_trees":"20"},"iteration_indptr":[0,1,2,3,4,5,6,7,8,9,10,11,12,13,14,15,16,17,18,19,20],"tree_info":[0,0,0,0,0,0,0,0,0,0,0,0,0,0,0,0,0,0,0,0],"trees":[{"base_weights":[4.4393815E-2,-5.2465814E-1,9.213897E-1,-5.211703E-2,-2.5780696E-1,1.4320846E-2,2.1577092E-1],"categories":[],"categories_nodes":[],"categories_segments":[],"categories_sizes":[],"default_left":[0,0,0,0,0,0,0],"id":0,"left_children":[1,3,5,-1,-1,-1,-1],"loss_changes":[6.447289E1,1.5782585E1,6.7948685E0,0E0,0E0,0E0,0E0],"parents":[2147483647,0,0,1,1,2,2],"right_children":[2,4,6,-1,-1,-1,-1],"split_conditions":[1E0,2.7E1,1E0,-5.211703E-2,-2.5780696E-1,1.4320846E-2,2.1577092E-1],"split_indices":[6,0,39,0,0,0,0],"split_type":[0,0,0,0,0,0,0],"sum_hessian":[1.2899277E2,7.825561E1,5.0737152E1,5.826173E1,1.9993877E1,7.9545536E0,4.27826E1],"tree_param":{"num_deleted":"0","num_feature":"52","num_nodes":"7","size_leaf_vector":"1"}},{"base_weights":[4.0786598E-2,-4.0235507E-1,8.0451155E-1,-1.2061284E-1,4.961569E-2,2.0274661E-1,2.4123605E-2],"categories":[],"categories_nodes":[],"categories_segments":[],"categories_sizes":[],"default_left":[0,0,0,0,0,0,0],"id":1,"left_children":[1,3,5,-1,-1,-1,-1],"loss_changes":[4.340827E1,1.061173E1,6.726141E0,0E0,0E0,0E0,0E0],"parents":[2147483647,0,0,1,1,2,2],"right_children":[2,4,6,-1,-1,-1,-1],"split_conditions":[1E0,1E0,4.455E3,-1.2061284E-1,4.961569E-2,2.0274661E-1,2.4123605E-2],"split_indices":[6,10,1,0,0,0,0],"split_type":[0,0,0,0,0,0,0],"sum_hessian":[1.2806485E2,8.107148E1,4.6993374E1,6.1959465E1,1.9112011E1,3.5947758E1,1.1045617E1],"tree_param":{"num_deleted":"0","num_feature":"52","num_nodes":"7","size_leaf_vector":"1"}},{"base_weights":[3.7039932E-2,-3.1263164E-1,7.0404124E-1,2.2387397E-2,-1.1549027E-1,-1.4925792E-2,1.7312708E-1],"categories":[],"categories_nodes":[],"categories_segments":[],"categories_sizes":[],"default_left":[0,0,0,0,0,0,0],"id":2,"left_children":[1,3,5,-1,-1,-1,-1],"loss_changes":[2.9547522E1,9.352254E0,5.4889164E0,0E0,0E0,0E0,0E0],"parents":[2147483647,0,0,1,1,2,2],"right_children":[2,4,6,-1,-1,-1,-1],"split_conditions":[1E0,3E0,1E0,2.2387397E-2,-1.1549027E-1,-1.4925792E-2,1.7312708E-1],"split_indices":[6,2,39,0,0,0,0],"split_type":[0,0,0,0,0,0,0],"sum_hessian":[1.2649321E2,8.3022354E1,4.347086E1,3.1914148E1,5.1108204E1,7.4801664E0,3.5990692E1],"tree_param":{"num_deleted":"0","num_feature":"52","num_nodes":"7","size_leaf_vector":"1"}},{"base_weights":[3.318502E-2,-2.4504441E-1,6.1603606E-1,9.339431E-2,-7.7501856E-2,1.666661E-1,-3.802824E-3],"categories":[],"categories_nodes":[],"categories_segments":[],"categories_sizes":[],"default_left":[0,0,0,0,0,0,0],"id":3,"left_children":[1,3,5,-1,-1,-1,-1],"loss_changes":[2.0238953E1,8.588129E0,5.56608E0,0E0,0E0,0E0,0E0],"parents":[2147483647,0,0,1,1,2,2],"right_children":[2,4,6,-1,-1,-1,-1],"split_conditions":[1E0,1.2E1,4.455E3,9.339431E-2,-7.7501856E-2,1.666661E-1,-3.802824E-3],"split_indices":[6,0,1,0,0,0,0],"split_type":[0,0,0,0,0,0,0],"sum_hessian":[1.2461059E2,8.438606E1,4.0224525E1,1.4031442E1,7.035462E1,2.994653E1,1.0277996E1],"tree_param":{"num_deleted":"0","num_feature":"52","num_nodes":"7","size_leaf_vector":"1"}},{"base_weights":[2.9639717E-2,-1.9319992E-1,5.370328E-1,-3.4182463E-3,-1.3530107E-1,1.2826128E-1,-1.3790339E-1],"categories":[],"categories_nodes":[],"categories_segments":[],"categories_sizes":[],"default_left":[0,0,0,0,0,0,0],"id":4,"left_children":[1,3,5,-1,-1,-1,-1],"loss_changes":[1.3887834E1,7.2637997E0,4.8379164E0,0E0,0E0,0E0,0E0],"parents":[2147483647,0,0,1,1,2,2],"right_children":[2,4,6,-1,-1,-1,-1],"split_conditions":[1E0,2.7E1,7.855E3,-3.4182463E-3,-1.3530107E-1,1.2826128E-1,-1.3790339E-1],"split_indices":[6,0,1,0,0,0,0],"split_type":[0,0,0,0,0,0,0],"sum_hessian":[1.2263628E2,8.525531E1,3.738097E1,6.2562195E1,2.2693117E1,3.4496044E1,2.8849254E0],"tree_param":{"num_deleted":"0","num_feature":"52","num_nodes":"7","size_leaf_vector":"1"}},{"base_weights":[2.5720933E-2,-1.6659859E-1,5.4175943E-1,-4.9302276E-2,2.0418644E-1,-1.4367537E-1,1.5174143E-1],"categories":[],"categories_nodes":[],"categories_segments":[],"categories_sizes":[],"default_left":[0,0,0,0,0,0,0],"id":5,"left_children":[1,3,5,-1,-1,-1,-1],"loss_changes":[1.1986927E1,8.376259E0,9.019084E0,0E0,0E0,0E0,0E0],"parents":[2147483647,0,0,1,1,2,2],"right_children":[2,4,6,-1,-1,-1,-1],"split_conditions":[1E0,1E0,2.6E1,-4.9302276E-2,2.0418644E-1,-1.4367537E-1,1.5174143E-1],"split_indices":[10,26,3,0,0,0,0],"split_type":[0,0,0,0,0,0,0],"sum_hessian":[1.2059111E2,8.78999E1,3.269121E1,8.243202E1,5.4678755E0,4.7675962E0,2.7923616E1],"tree_param":{"num_deleted":"0","num_feature":"52","num_nodes":"7","size_leaf_vector":"1"}},{"base_weights":[2.2914136E-2,3.6592972E-1,-1.8700476E-1,-4.69674E-2,1.1840128E-1,7.37552E-2,-1.1820693E-1],"categories":[],"categories_nodes":[],"categories_segments":[],"categories_sizes":[],"default_left":[0,0,0,0,0,0,0],"id":6,"left_children":[1,3,5,-1,-1,-1,-1],"loss_changes":[8.616182E0,6.18365E0,1.6692308E1,0E0,0E0,0E0,0E0],"parents":[2147483647,0,0,1,1,2,2],"right_children":[2,4,6,-1,-1,-1,-1],"split_conditions":[1E0,1.382E3,1.6E1,-4.69674E-2,1.1840128E-1,7.37552E-2,-1.1820693E-1],"split_indices":[25,1,0,0,0,0,0],"split_type":[0,0,0,0,0,0,0],"sum_hessian":[1.1946511E2,4.5326134E1,7.413898E1,1.2392075E1,3.293406E1,3.121229E1,4.2926685E1],"tree_param":{"num_deleted":"0","num_feature":"52","num_nodes":"7","size_leaf_vector":"1"}},{"base_weights":[2.014201E-2,-1.337127E-1,4.5995134E-1,-6.260725E-2,6.811457E-2,1.1784079E-1,-2.942667E-1],"categories":[],"categories_nodes":[],"categories_segments":[],"categories_sizes":[],"default_left":[0,0,0,0,0,0,0],"id":7,"left_children":[1,3,5,-1,-1,-1,-1],"loss_changes":[8.031589E0,7.4902396E0,7.7650294E0,0E0,0E0,0E0,0E0],"parents":[2147483647,0,0,1,1,2,2],"right_children":[2,4,6,-1,-1,-1,-1],"split_conditions":[1E0,1E0,7.763E3,-6.260725E-2,6.811457E-2,1.1784079E-1,-2.942667E-1],"split_indices":[10,21,1,0,0,0,0],"split_type":[0,0,0,0,0,0,0],"sum_hessian":[1.185024E2,8.7842735E1,3.065967E1,6.3766964E1,2.4075775E1,2.8801594E1,1.8580751E0],"tree_param":{"num_deleted":"0","num_feature":"52","num_nodes":"7","size_leaf_vector":"1"}},{"base_weights":[1.745016E-2,-2.8683096E-1,2.2746941E-1,-5.0102677E-3,-2.4312375E-1,6.143499E-2,-2.0992918E-1],"categories":[],"categories_nodes":[],"categories_segments":[],"categories_sizes":[],"default_left":[0,0,0,0,0,0,0],"id":8,"left_children":[1,3,5,-1,-1,-1,-1],"loss_changes":[7.522924E0,1.1685757E1,7.121493E0,0E0,0E0,0E0,0E0],"parents":[2147483647,0,0,1,1,2,2],"right_children":[2,4,6,-1,-1,-1,-1],"split_conditions":[3E1,1E0,1E0,-5.0102677E-3,-2.4312375E-1,6.143499E-2,-2.0992918E-1],"split_indices":[3,15,40,0,0,0,0],"split_type":[0,0,0,0,0,0,0],"sum_hessian":[1.1751852E2,4.7974823E1,6.954369E1,3.750633E1,1.0468494E1,6.5529884E1,4.0138106E0],"tree_param":{"num_deleted":"0","num_feature":"52","num_nodes":"7","size_leaf_vector":"1"}},{"base_weights":[1.482181E-2,-1.3463628E-1,4.0329406E-1,-1.20000064E-1,2.5633124E-3,1.0636288E-1,-1.0952648E-1],"categories":[],"categories_nodes":[],"categories_segments":[],"categories_sizes":[],"default_left":[0,0,0,0,0,0,0],"id":9,"left_children":[1,3,5,-1,-1,-1,-1],"loss_changes":[6.7908196E0,5.797203E0,4.000509E0,0E0,0E0,0E0,0E0],"parents":[2147483647,0,0,1,1,2,2],"right_children":[2,4,6,-1,-1,-1,-1],"split_conditions":[1E0,1.288E3,1E0,-1.20000064E-1,2.5633124E-3,1.0636288E-1,-1.0952648E-1],"split_indices":[6,1,11,0,0,0,0],"split_type":[0,0,0,0,0,0,0],"sum_hessian":[1.16767914E2,8.4372406E1,3.2395508E1,2.0227407E1,6.4145004E1,2.8577284E1,3.8182242E0],"tree_param":{"num_deleted":"0","num_feature":"52","num_nodes":"7","size_leaf_vector":"1"}},{"base_weights":[1.3163973E-2,2.922285E-1,-1.681149E-1,5.296855E-3,1.4380713E-1,6.616854E-2,-9.55205E-2],"categories":[],"categories_nodes":[],"categories_segments":[],"categories_sizes":[],"default_left":[0,0,0,0,0,0,0],"id":10,"left_children":[1,3,5,-1,-1,-1,-1],"loss_changes":[5.859121E0,5.170887E0,1.0858534E1,0E0,0E0,0E0,0E0],"parents":[2147483647,0,0,1,1,2,2],"right_children":[2,4,6,-1,-1,-1,-1],"split_conditions":[1.6E1,1E0,1E0,5.296855E-3,1.4380713E-1,6.616854E-2,-9.55205E-2],"split_indices":[0,36,25,0,0,0,0],"split_type":[0,0,0,0,0,0,0],"sum_hessian":[1.1562211E2,4.550679E1,7.011532E1,2.8110481E1,1.7396309E1,2.6838785E1,4.3276535E1],"tree_param":{"num_deleted":"0","num_feature":"52","num_nodes":"7","size_leaf_vector":"1"}},{"base_weights":[1.1860215E-2,-5.5166516E-2,6.431068E-1,1.6991103E-2,-1.0169504E-1,2.4229363E-1,-2.4435599E-1],"categories":[],"categories_nodes":[],"categories_segments":[],"categories_sizes":[],"default_left":[0,0,0,0,0,0,0],"id":11,"left_children":[1,3,5,-1,-1,-1,-1],"loss_changes":[4.8574953E0,6.5976915E0,1.1828448E1,0E0,0E0,0E0,0E0],"parents":[2147483647,0,0,1,1,2,2],"right_children":[2,4,6,-1,-1,-1,-1],"split_conditions":[1E0,4.241E3,7.98E3,1.6991103E-2,-1.0169504E-1,2.4229363E-1,-2.4435599E-1],"split_indices":[16,1,1,0,0,0,0],"split_type":[0,0,0,0,0,0,0],"sum_hessian":[1.14622345E2,1.0370234E2,1.09200115E1,7.927801E1,2.4424328E1,8.396154E0,2.5238566E0],"tree_param":{"num_deleted":"0","num_feature":"52","num_nodes":"7","size_leaf_vector":"1"}},{"base_weights":[1.0687741E-2,1.5053958E-1,-2.8716084E-1,1.0226447E-3,1.6268042E-1,6.823101E-2,-1.2385724E-1],"categories":[],"categories_nodes":[],"categories_segments":[],"categories_sizes":[],"default_left":[0,0,0,0,0,0,0],"id":12,"left_children":[1,3,5,-1,-1,-1,-1],"loss_changes":[4.7481966E0,7.4764924E0,7.6217813E0,0E0,0E0,0E0,0E0],"parents":[2147483647,0,0,1,1,2,2],"right_children":[2,4,6,-1,-1,-1,-1],"split_conditions":[1E0,1E0,3E0,1.0226447E-3,1.6268042E-1,6.823101E-2,-1.2385724E-1],"split_indices":[7,28,2,0,0,0,0],"split_type":[0,0,0,0,0,0,0],"sum_hessian":[1.1378575E2,7.746316E1,3.6322594E1,6.360872E1,1.3854437E1,1.2559594E1,2.3763E1],"tree_param":{"num_deleted":"0","num_feature":"52","num_nodes":"7","size_leaf_vector":"1"}},{"base_weights":[9.739593E-3,6.3229775E-1,-5.5968627E-2,1.7327414E-1,-2.4351259E-1,-9.6656404E-2,1.3843103E-2],"categories":[],"categories_nodes":[],"categories_segments":[],"categories_sizes":[],"default_left":[0,0,0,0,0,0,0],"id":13,"left_children":[1,3,5,-1,-1,-1,-1],"loss_changes":[4.621729E0,4.775876E0,5.470759E0,0E0,0E0,0E0,0E0],"parents":[2147483647,0,0,1,1,2,2],"right_children":[2,4,6,-1,-1,-1,-1],"split_conditions":[9E0,2.333E3,1.382E3,1.7327414E-1,-2.4351259E-1,-9.6656404E-2,1.3843103E-2],"split_indices":[0,1,1,0,0,0,0],"split_type":[0,0,0,0,0,0,0],"sum_hessian":[1.1279435E2,1.0686062E1,1.0210829E2,9.5329685E0,1.153093E0,2.3070742E1,7.9037544E1],"tree_param":{"num_deleted":"0","num_feature":"52","num_nodes":"7","size_leaf_vector":"1"}},{"base_weights":[8.714644E-3,-1.0751914E-1,3.3919027E-1,4.1334316E-2,-6.504608E-2,-2.6484394E-1,9.6761584E-2],"categories":[],"categories_nodes":[],"categories_segments":[],"categories_sizes":[],"default_left":[0,0,0,0,0,0,0],"id":14,"left_children":[1,3,5,-1,-1,-1,-1],"loss_changes":[4.3265285E0,5.7068667E0,7.1140194E0,0E0,0E0,0E0,0E0],"parents":[2147483647,0,0,1,1,2,2],"right_children":[2,4,6,-1,-1,-1,-1],"split_conditions":[1E0,3E0,2.3E1,4.1334316E-2,-6.504608E-2,-2.6484394E-1,9.6761584E-2],"split_indices":[21,2,3,0,0,0,0],"split_type":[0,0,0,0,0,0,0],"sum_hessian":[1.124386E2,8.323199E1,2.9206612E1,3.406952E1,4.916247E1,2.2708895E0,2.6935722E1],"tree_param":{"num_deleted":"0","num_feature":"52","num_nodes":"7","size_leaf_vector":"1"}},{"base_weights":[7.6791593E-3,-9.661241E-2,3.3881623E-1,-2.9137043E-2,1.6054432E-1,1.1469931E-2,2.354439E-1],"categories":[],"categories_nodes":[],"categories_segments":[],"categories_sizes":[],"default_left":[0,0,0,0,0,0,0],"id":15,"left_children":[1,3,5,-1,-1,-1,-1],"loss_changes":[3.8693671E0,3.7723613E0,6.3259153E0,0E0,0E0,0E0,0E0],"parents":[2147483647,0,0,1,1,2,2],"right_children":[2,4,6,-1,-1,-1,-1],"split_conditions":[1E0,1E0,4.5E1,-2.9137043E-2,1.6054432E-1,1.1469931E-2,2.354439E-1],"split_indices":[10,26,3,0,0,0,0],"split_type":[0,0,0,0,0,0,0],"sum_hessian":[1.1184776E2,8.511244E1,2.6735325E1,8.078799E1,4.3244534E0,2.0095692E1,6.639633E0],"tree_param":{"num_deleted":"0","num_feature":"52","num_nodes":"7","size_leaf_vector":"1"}},{"base_weights":[7.7538686E-3,-7.425871E-2,4.392753E-1,-4.407726E-2,6.6557944E-2,-2.6580602E-1,1.2998958E-1],"categories":[],"categories_nodes":[],"categories_segments":[],"categories_sizes":[],"default_left":[0,0,0,0,0,0,0],"id":16,"left_children":[1,3,5,-1,-1,-1,-1],"loss_changes":[3.9364407E0,5.5672717E0,6.703836E0,0E0,0E0,0E0,0E0],"parents":[2147483647,0,0,1,1,2,2],"right_children":[2,4,6,-1,-1,-1,-1],"split_conditions":[1E0,1E0,9.51E2,-4.407726E-2,6.6557944E-2,-2.6580602E-1,1.2998958E-1],"split_indices":[32,36,1,0,0,0,0],"split_type":[0,0,0,0,0,0,0],"sum_hessian":[1.1103757E2,9.3374176E1,1.7663387E1,6.8742096E1,2.4632082E1,1.8238484E0,1.583954E1],"tree_param":{"num_deleted":"0","num_feature":"52","num_nodes":"7","size_leaf_vector":"1"}},{"base_weights":[6.8712085E-3,3.061417E-1,-1.42722195E-2,-9.123851E-3,2.1295169E-1],"categories":[],"categories_nodes":[],"categories_segments":[],"categories_sizes":[],"default_left":[0,0,0,0,0],"id":17,"left_children":[1,-1,3,-1,-1],"loss_changes":[3.5673995E0,0E0,3.699833E0,0E0,0E0],"parents":[2147483647,0,0,2,2],"right_children":[2,-1,4,-1,-1],"split_conditions":[4.28E2,3.061417E-1,1E0,-9.123851E-3,2.1295169E-1],"split_indices":[1,0,44,0,0],"split_type":[0,0,0,0,0],"sum_hessian":[1.10555176E2,1.4152662E0,1.0913991E2,1.0615185E2,2.9880564E0],"tree_param":{"num_deleted":"0","num_feature":"52","num_nodes":"5","size_leaf_vector":"1"}},{"base_weights":[6.4347247E-3,-4.787856E-2,5.590791E-1,1.48752825E-2,-8.60899E-2,2.4084428E-1,-1.3777648E-1],"categories":[],"categories_nodes":[],"categories_segments":[],"categories_sizes":[],"default_left":[0,0,0,0,0,0,0],"id":18,"left_children":[1,3,5,-1,-1,-1,-1],"loss_changes":[3.319546E0,4.7134066E0,8.0505495E0,0E0,0E0,0E0,0E0],"parents":[2147483647,0,0,1,1,2,2],"right_children":[2,4,6,-1,-1,-1,-1],"split_conditions":[1E0,4.241E3,7.297E3,1.48752825E-2,-8.60899E-2,2.4084428E-1,-1.3777648E-1],"split_indices":[16,1,1,0,0,0,0],"split_type":[0,0,0,0,0,0,0],"sum_hessian":[1.1040362E2,1.00607376E2,9.796246E0,7.6304085E1,2.4303293E1,6.460138E0,3.3361077E0],"tree_param":{"num_deleted":"0","num_feature":"52","num_nodes":"7","size_leaf_vector":"1"}},{"base_weights":[6.2384563E-3,-6.675653E-2,3.8273507E-1,1.6965972E-3,-2.1844845E-1,1.4503168E-1,-8.961096E-2],"categories":[],"categories_nodes":[],"categories_segments":[],"categories_sizes":[],"default_left":[0,0,0,0,0,0,0],"id":19,"left_children":[1,3,5,-1,-1,-1,-1],"loss_changes":[3.0177698E0,7.098035E0,5.10534E0,0E0,0E0,0E0,0E0],"parents":[2147483647,0,0,1,1,2,2],"right_children":[2,4,6,-1,-1,-1,-1],"split_conditions":[1E0,4.8E1,1E0,1.6965972E-3,-2.1844845E-1,1.4503168E-1,-8.961096E-2],"split_indices":[28,0,7,0,0,0,0],"split_type":[0,0,0,0,0,0,0],"sum_hessian":[1.09614525E2,9.188263E1,1.7731894E1,8.5694435E1,6.188197E0,1.2565525E1,5.166368E0],"tree_param":{"num_deleted":"0","num_feature":"52","num_nodes":"7","size_leaf_vector":"1"}}]},"name":"gbtree"},"learner_model_param":{"base_score":"6.8711513E-1","boost_from_average":"1","num_class":"0","num_feature":"52","num_target":"1"},"objective":{"name":"binary:logistic","reg_loss_param":{"scale_pos_weight":"1"}}},"version":[2,0,2]}